{
    "algo": "glm",
    "model_id": "GLM_grid_0_AutoML_20181101_193138_model_0",
    "coef": {
        "Intercept": 4.579390516947914,
        "battery_power": -6.7008185380748595e-06,
        "blue": 0.006378522629602974,
        "clock_speed": 0.0003622586649528354,
        "dual_sim": -0.005648226427809438,
        "fc": -5.626646595884885e-05,
        "four_g": -0.018043307580419526,
        "int_memory": -0.0005028341672323256,
        "m_dep": -0.0037464916924130954,
        "mobile_wt": -0.00017615723374030573,
        "pc": -0.00018738228021497036,
        "px_height": -9.790024471559408e-06,
        "px_width": -3.4763343493522133e-06,
        "ram": -8.321484609521196e-07,
        "sc_h": -0.00019884701807091352,
        "sc_w": 0.0012078027867478338,
        "talk_time": 0.00023113756325180584,
        "three_g": -0.012509167529267614,
        "touch_screen": -0.0007151423691878862,
        "wifi": -0.005512284480628056,
        "price_range": -0.0010023309709239225
    },
    "coef_norm": {
        "Intercept": 4.498274672187716,
        "battery_power": -0.0029210013850329915,
        "blue": 0.003190361629243332,
        "clock_speed": 0.0002946138907745693,
        "dual_sim": -0.002824974522751786,
        "fc": -0.0002417705977244346,
        "four_g": -0.009006161173697918,
        "int_memory": -0.009098919177065545,
        "m_dep": -0.0010753181397698945,
        "mobile_wt": -0.006186518641740292,
        "pc": -0.0011299480506663023,
        "px_height": -0.004348602562862221,
        "px_width": -0.0015032883461360026,
        "ram": -0.0009073315206709656,
        "sc_h": -0.0008385413389712751,
        "sc_w": 0.005298258763890763,
        "talk_time": 0.0012625908467987234,
        "three_g": -0.005356027566455095,
        "touch_screen": -0.0003576877342227518,
        "wifi": -0.002757014335833159,
        "price_range": -0.0011262691291164236
    }
}
