{
    "algo": "glm",
    "model_id": "GLM_grid_0_AutoML_20181101_204840_model_0",
    "coef": {
        "Intercept": 0.5625382379987693,
        "battery_power": -1.4106794707868523e-05,
        "blue": 0.014557451251578202,
        "clock_speed": -0.0009108587606996305,
        "fc": -0.0005980341205720485,
        "four_g": 0.0041947446764704485,
        "int_memory": -0.00011166590602437034,
        "m_dep": -0.012615111682480019,
        "mobile_wt": -5.32798680043253e-05,
        "n_cores": -0.0013904058085207089,
        "pc": -0.0006662979902597924,
        "px_height": -1.7416596422240403e-06,
        "px_width": 1.3395327021032674e-06,
        "ram": 4.386723102589162e-06,
        "sc_h": -0.00020989302514403275,
        "sc_w": -0.0010071915840716976,
        "talk_time": -0.0008424154802471321,
        "three_g": -0.008020297308541854,
        "touch_screen": -0.0009749765183396538,
        "wifi": 0.0044182063470958625,
        "price_range": 0.0006731247090306967
    },
    "coef_norm": {
        "Intercept": 0.5092911218169305,
        "battery_power": -0.006217917676019906,
        "blue": 0.007281091963061051,
        "clock_speed": -0.0007489318162727334,
        "fc": -0.002596552255785671,
        "four_g": 0.002097175491200903,
        "int_memory": -0.0020168495280186967,
        "m_dep": -0.003651537390599402,
        "mobile_wt": -0.0018865524133793445,
        "n_cores": -0.0031675922037577766,
        "pc": -0.004060560379367976,
        "px_height": -0.000777207613028915,
        "px_width": 0.0005831754147044881,
        "ram": 0.004774670147833015,
        "sc_h": -0.0008801562198579692,
        "sc_w": -0.004286669453245797,
        "talk_time": -0.00463823379560737,
        "three_g": -0.0034859591784145508,
        "touch_screen": -0.0004876365795721765,
        "wifi": 0.0022098381080658176,
        "price_range": 0.0007534508822495647
    }
}
