{
    "algo": "glm",
    "model_id": "GLM_grid_0_AutoML_20181101_201034_model_0",
    "coef": {
        "Intercept": 4.519840073387449,
        "battery_power": -2.726747694076588e-05,
        "blue": 0.028666557881362357,
        "clock_speed": -0.003096373834952003,
        "dual_sim": -0.01624495848685264,
        "fc": -0.0008026042036447989,
        "four_g": -0.01693469527579419,
        "int_memory": -0.00023127505052926455,
        "m_dep": 0.0060482510855106916,
        "mobile_wt": -0.00010523369542809849,
        "pc": 0.0015442311162590532,
        "px_height": -1.3052428013223182e-06,
        "px_width": -6.680072016893093e-06,
        "ram": 6.172477649220337e-07,
        "sc_h": 0.0013771302665676443,
        "sc_w": 0.0026910510480300624,
        "talk_time": 0.0008757615664837694,
        "three_g": -0.0037521835334685663,
        "touch_screen": 0.010611037654654844,
        "wifi": -0.005705404645218696,
        "price_range": -0.0022039528601205992
    },
    "coef_norm": {
        "Intercept": 4.501711156741957,
        "battery_power": -0.01197632817991355,
        "blue": 0.014337914704977065,
        "clock_speed": -0.0025122233953232594,
        "dual_sim": -0.008124832184843268,
        "fc": -0.0035062651832085683,
        "four_g": -0.00846379809134509,
        "int_memory": -0.004170979439475994,
        "m_dep": 0.0017411572145133317,
        "mobile_wt": -0.0036926371483785407,
        "pc": 0.009359901136009137,
        "px_height": -0.000571212853557061,
        "px_width": -0.0028690417511845192,
        "ram": 0.0006730452161435293,
        "sc_h": 0.0057309862060465604,
        "sc_w": 0.011696226654177109,
        "talk_time": 0.004798569596398322,
        "three_g": -0.0015941316419549737,
        "touch_screen": 0.0053068866553542034,
        "wifi": -0.0028536784397713995,
        "price_range": -0.002487767741739152
    }
}
